{"zData":[3.8005576,-0.4633299,-0.4633299,-0.4633299,-0.4633299,-0.4633299,-0.4633299,-0.4633299,-0.4633299,-0.4633299,-0.4633299,-0.4633299,-0.4633299,-0.4633299,-0.4633299,-0.4633299,-0.4633299,-0.4633299,-0.4633299,-0.4633299,-0.4633299,-0.4633299,-0.4633299,-0.4633299,-0.4633299,0.9579659,-0.4633299,0.9579659,-0.4633299,-0.4633299,-0.4633299,-0.4633299,-0.4633299,-0.4633299,-0.4633299,-0.4633299,-0.4633299,-0.4633299,-0.4633299,-0.4633299,-0.4633299,-0.4633299,-0.4633299,-0.4633299,-0.4633299,-0.4633299,-0.4633299,-0.4633299,-0.4633299,-0.4633299,-0.4633299,-0.4633299,-0.4633299,-0.4633299,-0.4633299,-0.4633299,-0.4633299,-0.4633299,0.9579659,-0.4633299,-0.4633299,-0.4633299,-0.4633299,-0.4633299,-0.4633299,-0.4633299,-0.4633299,-0.4633299,-0.4633299,-0.4633299,-0.4633299,-0.4633299,-0.4633299,-0.4633299,-0.4633299,-0.4633299,-0.4633299,-0.4633299,-0.4633299,-0.4633299,-0.4633299,-0.4633299,-0.4633299,0.9579659,-0.4633299,-0.4633299,-0.4633299,-0.4633299,0.9579659,-0.4633299,-0.4633299,-0.4633299,2.3792617,-0.4633299,-0.4633299,-0.4633299,-0.4633299,-0.4633299,-0.4633299,-0.4633299,0.9579659,-0.4633299,0.9579659,0.9579659,-0.4633299,0.9579659,-0.4633299,-0.4633299,-0.4633299,-0.4633299,-0.4633299,-0.4633299,-0.4633299,-0.4633299,-0.4633299,0.9579659,-0.4633299,-0.4633299,-0.4633299,-0.4633299,-0.4633299,-0.4633299,0.9579659,-0.4633299,-0.4633299,0.9579659,3.8005576,-0.4633299,-0.4633299,0.9579659,-0.4633299,-0.4633299,-0.4633299,2.3792617,-0.4633299,-0.4633299,2.3792617,-0.4633299,-0.4633299,-0.4633299,0.9579659,-0.4633299,-0.4633299,-0.4633299,0.9579659,-0.4633299,-0.4633299,-0.4633299,-0.4633299,-0.4633299,-0.4633299,0.9579659,-0.4633299,-0.4633299,-0.4633299,2.3792617,-0.4633299,-0.4633299,2.3792617,0.9579659,2.3792617,-0.4633299,0.9579659,-0.4633299,-0.4633299,0.9579659,0.9579659,-0.4633299,-0.4633299,-0.4633299,-0.4633299,-0.4633299,0.9579659,2.3792617,0.9579659,-0.4633299,0.9579659,0.9579659,-0.4633299,0.9579659,-0.4633299,-0.4633299,-0.4633299,-0.4633299,0.9579659,0.9579659,-0.4633299,-0.4633299,0.9579659,-0.4633299,-0.4633299,-0.4633299,-0.4633299,-0.4633299,-0.4633299,2.3792617,0.9579659,-0.4633299,5.2218533,5.2218533,0.9579659,-0.4633299,-0.4633299,-0.4633299,-0.4633299,0.9579659,2.3792617,0.9579659,-0.4633299,-0.4633299,-0.4633299,3.8005576,-0.4633299,0.9579659,2.3792617,0.9579659,0.9579659,-0.4633299,0.9579659,0.9579659,-0.4633299,-0.4633299,-0.4633299,-0.4633299,-0.4633299,-0.4633299,-0.4633299],"rawMean":0.32599118942731276,"stDev":0.7035832811759739}