{"zData":[2.4699383,-0.5424243,-0.5424243,-0.5424243,-0.5424243,-0.5424243,-0.5424243,-0.5424243,-0.5424243,-0.5424243,-0.5424243,-0.5424243,-0.5424243,-0.5424243,1.7168477,-0.5424243,-0.5424243,-0.5424243,-0.5424243,-0.5424243,-0.5424243,-0.5424243,-0.5424243,-0.5424243,-0.5424243,-0.5424243,-0.5424243,-0.5424243,-0.5424243,-0.5424243,-0.5424243,-0.5424243,-0.5424243,-0.5424243,-0.5424243,-0.5424243,-0.5424243,-0.5424243,-0.5424243,-0.5424243,-0.5424243,-0.5424243,-0.5424243,-0.5424243,-0.5424243,-0.165879,-0.5424243,-0.5424243,-0.5424243,-0.5424243,-0.5424243,-0.5424243,-0.5424243,-0.5424243,-0.5424243,-0.5424243,-0.5424243,-0.5424243,-0.165879,-0.5424243,-0.5424243,-0.5424243,-0.5424243,-0.5424243,-0.5424243,-0.5424243,-0.5424243,-0.5424243,-0.5424243,-0.165879,-0.5424243,-0.5424243,-0.5424243,-0.5424243,-0.165879,-0.5424243,-0.5424243,-0.5424243,-0.5424243,-0.5424243,-0.5424243,-0.5424243,-0.5424243,-0.165879,-0.5424243,-0.165879,-0.5424243,-0.5424243,-0.5424243,-0.5424243,-0.5424243,-0.5424243,-0.5424243,-0.5424243,-0.165879,-0.5424243,-0.5424243,-0.5424243,-0.165879,-0.5424243,-0.5424243,-0.5424243,-0.5424243,-0.165879,-0.5424243,0.21066633,-0.5424243,-0.165879,0.58721167,-0.5424243,-0.165879,-0.165879,-0.5424243,-0.5424243,-0.5424243,-0.5424243,-0.5424243,0.963757,-0.165879,0.58721167,0.21066633,-0.5424243,-0.5424243,0.21066633,-0.165879,0.21066633,0.21066633,0.963757,-0.5424243,-0.165879,-0.165879,-0.5424243,-0.5424243,-0.5424243,-0.5424243,-0.165879,-0.165879,0.963757,-0.5424243,0.21066633,1.7168477,0.58721167,-0.165879,-0.165879,2.0933928,0.21066633,0.21066633,-0.165879,-0.5424243,0.21066633,0.58721167,1.3403023,-0.165879,-0.165879,-0.5424243,-0.5424243,-0.165879,0.21066633,-0.165879,-0.165879,0.963757,0.963757,3.5995743,-0.165879,-0.165879,0.58721167,0.21066633,-0.165879,0.963757,-0.165879,-0.5424243,0.21066633,1.3403023,-0.165879,1.3403023,-0.5424243,0.58721167,-0.165879,-0.5424243,0.21066633,-0.5424243,-0.165879,0.58721167,2.0933928,1.7168477,1.7168477,1.7168477,-0.5424243,-0.165879,1.7168477,0.58721167,0.58721167,0.21066633,2.4699383,-0.5424243,0.58721167,0.58721167,-0.5424243,0.58721167,2.0933928,0.58721167,0.963757,0.963757,-0.5424243,1.3403023,0.58721167,3.223029,1.3403023,1.7168477,0.21066633,0.21066633,2.8464837,5.4823008,2.4699383,1.7168477,6.988482,-0.5424243,-0.5424243,-0.165879,-0.5424243,-0.5424243,-0.5424243,-0.165879,-0.165879,-0.5424243,-0.5424243,-0.5424243],"rawMean":1.4405286343612336,"stDev":2.655722770946423}