[-0.5620972,-0.5620972,-0.5620972,-0.5620972,-0.5620972,-0.5620972,-0.5620972,-0.5620972,-0.5620972,-0.5620972,-0.5620972,4.882216,4.882216,4.882216,-0.5620972,-0.5620972,-0.5620972,-0.5620972,-0.5620972,-0.5620972,-0.5620972,-0.5620972,-0.5620972,-0.5620972,-0.5620972,-0.5620972,-0.5620972,-0.5620972,-0.5620972,-0.5620972,-0.5620972,-0.5620972,-0.5620972,-0.5620972,-0.5620972,-0.5620972,-0.5620972,-0.5620972,-0.5620972,-0.5620972,-0.5620972,-0.5620972,0.34528828,0.34528828,0.34528828,-0.5620972,-0.5620972,-0.5620972,-0.5620972,-0.5620972,-0.5620972,-0.5620972,-0.5620972,-0.5620972,-0.5620972,0.34528828,0.34528828,0.34528828,-0.5620972,-0.5620972,-0.5620972,-0.5620972,-0.5620972,-0.5620972,-0.5620972,-0.5620972,0.34528828,0.34528828,0.34528828,-0.5620972,-0.5620972,0.34528828,0.34528828,0.34528828,-0.5620972,-0.5620972,-0.5620972,-0.5620972,-0.5620972,-0.5620972,-0.5620972,-0.5620972,-0.5620972,0.34528828,0.34528828,-0.5620972,-0.5620972,-0.5620972,-0.5620972,-0.5620972,-0.5620972,-0.5620972,-0.5620972,-0.5620972,-0.5620972,0.34528828,0.34528828,0.34528828,-0.5620972,-0.5620972,-0.5620972,-0.5620972,1.2526737,1.2526737,2.1600592,0.34528828,0.34528828,3.0674448,1.2526737,1.2526737,0.34528828,-0.5620972,-0.5620972,-0.5620972,-0.5620972,-0.5620972,2.1600592,2.1600592,2.1600592,0.34528828,1.2526737,2.1600592,3.9748304,3.0674448,2.1600592,0.34528828,0.34528828,0.34528828,0.34528828,-0.5620972,-0.5620972,-0.5620972,0.34528828,0.34528828,1.2526737,0.34528828,0.34528828,-0.5620972,-0.5620972,0.34528828,1.2526737,1.2526737,0.34528828,0.34528828,0.34528828,0.34528828,-0.5620972,0.34528828,0.34528828,0.34528828,-0.5620972,-0.5620972,-0.5620972,-0.5620972,-0.5620972,0.34528828,0.34528828,2.1600592,1.2526737,1.2526737,-0.5620972,-0.5620972,-0.5620972,-0.5620972,-0.5620972,-0.5620972,-0.5620972,-0.5620972,-0.5620972,-0.5620972,-0.5620972,-0.5620972,-0.5620972,-0.5620972,-0.5620972,-0.5620972,-0.5620972,-0.5620972,-0.5620972,-0.5620972,-0.5620972,0.34528828,2.1600592,2.1600592,1.2526737,-0.5620972,-0.5620972,-0.5620972,-0.5620972,-0.5620972,-0.5620972,0.34528828,0.34528828,-0.5620972,-0.5620972,-0.5620972,-0.5620972,-0.5620972,-0.5620972,1.2526737,1.2526737,1.2526737,-0.5620972,-0.5620972,-0.5620972,-0.5620972,-0.5620972,-0.5620972,-0.5620972,-0.5620972,-0.5620972,-0.5620972,0.34528828,0.34528828,0.34528828,0.34528828,0.34528828,0.34528828,-0.5620972,0.34528828,1.2526737,1.2526737,0.34528828,-0.5620972,-0.5620972,-0.5620972]