{"zData":[-0.54160255,-0.54160255,-0.54160255,-0.54160255,0.27080128,-0.54160255,-0.54160255,-0.54160255,-0.54160255,-0.54160255,-0.54160255,-0.54160255,-0.54160255,-0.54160255,-0.54160255,-0.54160255,0.27080128,-0.54160255,-0.54160255,-0.54160255,-0.54160255,-0.54160255,-0.54160255,-0.54160255,-0.54160255,-0.54160255,-0.54160255,0.27080128,-0.54160255,-0.54160255,-0.54160255,-0.54160255,-0.54160255,-0.54160255,-0.54160255,-0.54160255,-0.54160255,-0.54160255,-0.54160255,-0.54160255,0.27080128,0.27080128,-0.54160255,-0.54160255,-0.54160255,-0.54160255,-0.54160255,-0.54160255,-0.54160255,-0.54160255,-0.54160255,0.27080128,-0.54160255,-0.54160255,-0.54160255,-0.54160255,-0.54160255,-0.54160255,-0.54160255,-0.54160255,-0.54160255,0.27080128,-0.54160255,-0.54160255,-0.54160255,0.27080128,1.0832051,-0.54160255,-0.54160255,0.27080128,1.0832051,0.27080128,-0.54160255,-0.54160255,0.27080128,-0.54160255,0.27080128,0.27080128,1.8956089,0.27080128,1.0832051,1.0832051,0.27080128,-0.54160255,0.27080128,-0.54160255,0.27080128,1.0832051,1.0832051,1.8956089,0.27080128,1.0832051,-0.54160255,1.8956089,1.0832051,1.0832051,-0.54160255,1.0832051,0.27080128,-0.54160255,-0.54160255,1.8956089,6.770032,-0.54160255,1.8956089,0.27080128,1.8956089,2.7080128,1.0832051,0.27080128,-0.54160255],"rawMean":0.6666666666666666,"stDev":1.2309149097933274}