[-0.4881462,-0.4881462,2.363655,-0.4881462,-0.4881462,-0.4881462,-0.4881462,-0.4881462,0.46245426,-0.4881462,-0.4881462,-0.4881462,-0.4881462,-0.4881462,-0.4881462,-0.4881462,-0.4881462,0.46245426,-0.4881462,-0.4881462,-0.4881462,-0.4881462,-0.4881462,-0.4881462,-0.4881462,-0.4881462,-0.4881462,0.46245426,0.46245426,-0.4881462,0.46245426,-0.4881462,-0.4881462,-0.4881462,-0.4881462,-0.4881462,5.2154565,-0.4881462,-0.4881462,-0.4881462,-0.4881462,-0.4881462,-0.4881462,-0.4881462,-0.4881462,-0.4881462,-0.4881462,0.46245426,-0.4881462,-0.4881462,-0.4881462,0.46245426,-0.4881462,-0.4881462,-0.4881462,0.46245426,0.46245426,-0.4881462,-0.4881462,-0.4881462,-0.4881462,-0.4881462,-0.4881462,0.46245426,0.46245426,-0.4881462,-0.4881462,-0.4881462,0.46245426,-0.4881462,-0.4881462,2.363655,3.3142557,0.46245426,-0.4881462,2.363655,0.46245426,4.264856,0.46245426,0.46245426,-0.4881462,1.4130547,-0.4881462,1.4130547,0.46245426,-0.4881462,0.46245426,-0.4881462,0.46245426,1.4130547,-0.4881462,-0.4881462,-0.4881462,-0.4881462,-0.4881462,-0.4881462,-0.4881462,2.363655,-0.4881462,-0.4881462,0.46245426,-0.4881462,-0.4881462,1.4130547,-0.4881462,-0.4881462,-0.4881462,0.46245426,0.46245426,-0.4881462,-0.4881462]