{"zData":[-0.5277767,-0.5277767,0.0129914265,-0.5277767,-0.5277767,-0.5277767,-0.5277767,-0.5277767,-0.34752068,-0.5277767,-0.5277767,-0.5277767,-0.5277767,-0.5277767,-0.5277767,-0.5277767,-0.5277767,-0.34752068,-0.5277767,-0.5277767,-0.5277767,-0.5277767,-0.5277767,-0.5277767,-0.5277767,-0.5277767,-0.5277767,-0.34752068,-0.34752068,-0.5277767,-0.34752068,-0.5277767,-0.5277767,-0.5277767,-0.5277767,-0.5277767,0.5537596,-0.5277767,-0.5277767,-0.5277767,-0.5277767,-0.5277767,-0.5277767,-0.5277767,-0.5277767,-0.5277767,-0.5277767,-0.34752068,-0.5277767,-0.5277767,-0.5277767,-0.34752068,-0.5277767,-0.5277767,-0.5277767,-0.34752068,-0.34752068,-0.5277767,-0.5277767,-0.5277767,-0.5277767,-0.5277767,-0.5277767,-0.34752068,-0.34752068,-0.5277767,-0.5277767,-0.34752068,-0.34752068,-0.5277767,-0.34752068,0.0129914265,0.19324748,-0.34752068,-0.5277767,0.91427165,-0.16726463,0.37350354,0.5537596,-0.16726463,-0.5277767,0.5537596,0.91427165,0.37350354,1.4550399,0.0129914265,1.0945277,-0.34752068,0.19324748,1.0945277,1.8155519,0.5537596,0.37350354,0.91427165,0.91427165,0.0129914265,0.19324748,2.8970883,0.73401564,1.6352959,1.2747837,0.5537596,1.8155519,0.91427165,2.7168322,1.8155519,4.3391366,5.600929,-0.34752068,-0.5277767,-0.5277767],"rawMean":2.9279279279279278,"stDev":5.547664064863388}