{"zData":[-0.57498467,-0.57498467,-0.57498467,-0.57498467,0.20478907,-0.57498467,-0.57498467,-0.57498467,-0.57498467,-0.57498467,-0.57498467,-0.57498467,-0.57498467,-0.57498467,-0.57498467,0.20478907,-0.57498467,-0.57498467,-0.57498467,-0.57498467,-0.57498467,-0.57498467,-0.57498467,-0.57498467,-0.57498467,-0.57498467,-0.57498467,-0.57498467,0.20478907,0.20478907,-0.57498467,-0.57498467,-0.57498467,-0.57498467,-0.57498467,-0.57498467,-0.57498467,-0.57498467,-0.57498467,0.20478907,-0.57498467,-0.57498467,-0.57498467,-0.57498467,-0.57498467,-0.57498467,-0.57498467,-0.57498467,-0.57498467,0.20478907,-0.57498467,-0.57498467,-0.57498467,0.20478907,0.9845628,-0.57498467,-0.57498467,0.20478907,0.9845628,0.20478907,-0.57498467,-0.57498467,0.20478907,-0.57498467,0.20478907,0.20478907,1.7643366,0.20478907,0.9845628,0.9845628,0.20478907,-0.57498467,0.20478907,-0.57498467,0.20478907,0.9845628,0.9845628,1.7643366,0.20478907,0.9845628,-0.57498467,1.7643366,0.9845628,0.9845628,-0.57498467,0.9845628,0.20478907,-0.57498467,-0.57498467,1.7643366,6.4429793,-0.57498467,1.7643366,0.20478907,1.7643366,2.5441103,0.9845628,0.20478907,-0.57498467],"rawMean":0.7373737373737373,"stDev":1.2824232370380202}