[-0.49938315,-0.49938315,-0.49938315,-0.49938315,-0.49938315,0.4334269,-0.49938315,-0.49938315,-0.49938315,-0.49938315,-0.49938315,-0.49938315,-0.49938315,-0.49938315,-0.49938315,0.4334269,0.4334269,-0.49938315,0.4334269,-0.49938315,-0.49938315,-0.49938315,-0.49938315,-0.49938315,5.097477,-0.49938315,-0.49938315,-0.49938315,-0.49938315,-0.49938315,-0.49938315,-0.49938315,-0.49938315,-0.49938315,-0.49938315,0.4334269,-0.49938315,-0.49938315,-0.49938315,0.4334269,-0.49938315,-0.49938315,-0.49938315,0.4334269,0.4334269,-0.49938315,-0.49938315,-0.49938315,-0.49938315,-0.49938315,-0.49938315,0.4334269,0.4334269,-0.49938315,-0.49938315,-0.49938315,0.4334269,-0.49938315,-0.49938315,2.299047,3.2318568,0.4334269,-0.49938315,2.299047,0.4334269,4.164667,0.4334269,0.4334269,-0.49938315,1.3662369,-0.49938315,1.3662369,0.4334269,-0.49938315,0.4334269,-0.49938315,0.4334269,1.3662369,-0.49938315,-0.49938315,-0.49938315,-0.49938315,-0.49938315,-0.49938315,-0.49938315,2.299047,-0.49938315,-0.49938315,0.4334269,-0.49938315,-0.49938315,1.3662369,-0.49938315,-0.49938315,-0.49938315,0.4334269,0.4334269,-0.49938315,-0.49938315]