{"zData":[-0.5599343,-0.5599343,-0.5599343,-0.5599343,-0.5599343,-0.38724428,-0.5599343,-0.5599343,-0.5599343,-0.5599343,-0.5599343,-0.5599343,-0.5599343,-0.5599343,-0.5599343,-0.38724428,-0.38724428,-0.5599343,-0.38724428,-0.5599343,-0.5599343,-0.5599343,-0.5599343,-0.5599343,0.47620583,-0.5599343,-0.5599343,-0.5599343,-0.5599343,-0.5599343,-0.5599343,-0.5599343,-0.5599343,-0.5599343,-0.5599343,-0.38724428,-0.5599343,-0.5599343,-0.5599343,-0.38724428,-0.5599343,-0.5599343,-0.5599343,-0.38724428,-0.38724428,-0.5599343,-0.5599343,-0.5599343,-0.5599343,-0.5599343,-0.5599343,-0.38724428,-0.38724428,-0.5599343,-0.5599343,-0.38724428,-0.38724428,-0.5599343,-0.38724428,-0.041864246,0.13082577,-0.38724428,-0.5599343,0.82158583,-0.21455427,0.3035158,0.47620583,-0.21455427,-0.5599343,0.47620583,0.82158583,0.3035158,1.3396559,-0.041864246,0.99427587,-0.38724428,0.13082577,0.99427587,1.685036,0.47620583,0.3035158,0.82158583,0.82158583,-0.041864246,0.13082577,2.7211761,0.64889586,1.5123459,1.166966,0.47620583,1.685036,0.82158583,2.548486,1.685036,4.1026964,5.3115263,-0.38724428,-0.5599343,-0.5599343],"rawMean":3.242424242424242,"stDev":5.7907225397585345}