{"zData":[-0.5978637,-0.5978637,-0.5978637,-0.5978637,0.6601411,-0.5978637,-0.5978637,-0.5978637,-0.5978637,-0.5978637,-0.5978637,-0.5978637,-0.5978637,-0.5978637,-0.5978637,-0.5978637,0.6601411,-0.5978637,-0.5978637,-0.5978637,-0.5978637,-0.5978637,-0.5978637,-0.5978637,-0.5978637,-0.5978637,-0.5978637,0.6601411,-0.5978637,-0.5978637,-0.5978637,-0.5978637,-0.5978637,-0.5978637,-0.5978637,-0.5978637,-0.5978637,-0.5978637,-0.5978637,-0.5978637,0.6601411,0.6601411,-0.5978637,-0.5978637,-0.5978637,-0.5978637,-0.5978637,-0.5978637,-0.5978637,-0.5978637,-0.5978637,0.6601411,-0.5978637,-0.5978637,-0.5978637,-0.5978637,-0.5978637,-0.5978637,-0.5978637,-0.5978637,0.6601411,-0.5978637,-0.5978637,-0.5978637,0.6601411,1.9181459,-0.5978637,-0.5978637,0.6601411,1.9181459,0.6601411,-0.5978637,-0.5978637,0.6601411,-0.5978637,0.6601411,0.6601411,3.1761506,0.6601411,1.9181459,1.9181459,0.6601411,-0.5978637,0.6601411,-0.5978637,0.6601411,1.9181459,1.9181459,3.1761506,0.6601411,1.9181459,-0.5978637,3.1761506,1.9181459,1.9181459,-0.5978637,1.9181459,0.6601411,-0.5978637,-0.5978637,-0.5978637],"rawMean":0.4752475247524752,"stDev":0.7949095471302455}