[-0.49365333,-0.49365333,2.338358,-0.49365333,-0.49365333,-0.49365333,-0.49365333,-0.49365333,0.4503504,-0.49365333,-0.49365333,-0.49365333,-0.49365333,-0.49365333,-0.49365333,-0.49365333,-0.49365333,0.4503504,-0.49365333,-0.49365333,-0.49365333,-0.49365333,-0.49365333,-0.49365333,-0.49365333,-0.49365333,-0.49365333,0.4503504,0.4503504,-0.49365333,0.4503504,-0.49365333,-0.49365333,-0.49365333,-0.49365333,-0.49365333,5.170369,-0.49365333,-0.49365333,-0.49365333,-0.49365333,-0.49365333,-0.49365333,-0.49365333,-0.49365333,-0.49365333,-0.49365333,0.4503504,-0.49365333,-0.49365333,-0.49365333,0.4503504,-0.49365333,-0.49365333,-0.49365333,0.4503504,0.4503504,-0.49365333,-0.49365333,-0.49365333,-0.49365333,-0.49365333,0.4503504,0.4503504,-0.49365333,-0.49365333,-0.49365333,0.4503504,-0.49365333,-0.49365333,2.338358,3.2823617,0.4503504,-0.49365333,2.338358,0.4503504,4.2263656,0.4503504,0.4503504,-0.49365333,1.3943541,-0.49365333,1.3943541,0.4503504,-0.49365333,0.4503504,-0.49365333,0.4503504,1.3943541,-0.49365333,-0.49365333,-0.49365333,-0.49365333,-0.49365333,-0.49365333,-0.49365333,2.338358,-0.49365333,-0.49365333,0.4503504,-0.49365333,-0.49365333,1.3943541,-0.49365333,-0.49365333,0.4503504,0.4503504,-0.49365333,-0.49365333]