{"zData":[-0.5688968,-0.5688968,0.2719604,-0.5688968,-0.5688968,-0.5688968,-0.5688968,-0.5688968,-0.28861105,-0.5688968,-0.5688968,-0.5688968,-0.5688968,-0.5688968,-0.5688968,-0.5688968,-0.5688968,-0.28861105,-0.5688968,-0.5688968,-0.5688968,-0.5688968,-0.5688968,-0.5688968,-0.5688968,-0.5688968,-0.5688968,-0.28861105,-0.28861105,-0.5688968,-0.28861105,-0.5688968,-0.5688968,-0.5688968,-0.5688968,-0.5688968,1.1128176,-0.5688968,-0.5688968,-0.5688968,-0.5688968,-0.5688968,-0.5688968,-0.5688968,-0.5688968,-0.5688968,-0.5688968,-0.28861105,-0.5688968,-0.5688968,-0.5688968,-0.28861105,-0.5688968,-0.5688968,-0.5688968,-0.28861105,-0.28861105,-0.5688968,-0.5688968,-0.5688968,-0.5688968,-0.5688968,-0.28861105,-0.28861105,-0.5688968,-0.5688968,-0.28861105,-0.28861105,-0.5688968,-0.28861105,0.2719604,0.55224615,-0.28861105,-0.5688968,1.6733891,-0.008325319,0.83253187,1.1128176,-0.008325319,-0.5688968,1.1128176,1.6733891,0.83253187,2.5142462,0.2719604,1.9536748,-0.28861105,0.55224615,1.9536748,3.074818,1.1128176,0.83253187,1.6733891,1.6733891,0.2719604,0.55224615,4.756532,1.3931034,2.794532,2.2339606,-0.5688968],"rawMean":2.0297029702970297,"stDev":3.567787677383715}