{"zData":[-0.46976998,-0.46976998,-0.46976998,-0.052358266,-0.46976998,-0.46976998,-0.46976998,-0.46976998,-0.46976998,-0.46976998,-0.46976998,-0.46976998,-0.46976998,-0.46976998,-0.46976998,-0.46976998,-0.46976998,-0.46976998,-0.46976998,-0.46976998,-0.46976998,-0.46976998,-0.46976998,-0.46976998,-0.46976998,-0.46976998,-0.46976998,-0.46976998,-0.46976998,-0.46976998,-0.46976998,-0.46976998,-0.46976998,-0.46976998,-0.052358266,-0.46976998,-0.46976998,-0.46976998,-0.052358266,-0.46976998,-0.46976998,-0.46976998,-0.46976998,-0.46976998,-0.052358266,-0.46976998,-0.46976998,-0.46976998,-0.46976998,-0.46976998,-0.46976998,-0.46976998,-0.46976998,-0.46976998,-0.46976998,-0.46976998,-0.46976998,-0.46976998,-0.46976998,-0.46976998,-0.46976998,-0.46976998,2.0347004,-0.46976998,-0.46976998,-0.46976998,-0.46976998,-0.46976998,-0.46976998,-0.46976998,-0.46976998,-0.46976998,-0.46976998,-0.46976998,-0.46976998,-0.46976998,-0.46976998,-0.46976998,-0.46976998,-0.46976998,-0.46976998,-0.46976998,-0.46976998,-0.46976998,-0.46976998,-0.46976998,-0.46976998,-0.46976998,-0.46976998,-0.46976998,-0.46976998,-0.46976998,-0.46976998,-0.052358266,-0.46976998,-0.46976998,-0.46976998,-0.46976998,-0.46976998,-0.46976998,-0.46976998,-0.46976998,-0.46976998,-0.46976998,-0.46976998,-0.46976998,-0.052358266,-0.46976998,-0.46976998,-0.46976998,-0.46976998,-0.46976998,-0.46976998,-0.46976998,-0.46976998,-0.46976998,-0.46976998,-0.052358266,-0.46976998,-0.46976998,-0.46976998,-0.46976998,-0.052358266,-0.46976998,-0.46976998,-0.46976998,-0.46976998,-0.46976998,-0.46976998,-0.46976998,-0.46976998,-0.46976998,-0.46976998,-0.46976998,-0.46976998,-0.46976998,-0.46976998,-0.46976998,-0.46976998,-0.46976998,-0.46976998,-0.46976998,-0.052358266,-0.46976998,-0.46976998,-0.052358266,-0.46976998,-0.46976998,-0.46976998,-0.46976998,-0.46976998,-0.46976998,-0.46976998,-0.46976998,-0.052358266,-0.46976998,-0.46976998,-0.46976998,-0.052358266,-0.46976998,-0.46976998,-0.46976998,-0.46976998,-0.052358266,-0.46976998,0.36505347,-0.46976998,-0.052358266,0.7824652,-0.46976998,-0.052358266,-0.052358266,-0.46976998,-0.46976998,-0.46976998,-0.46976998,-0.46976998,1.1998769,-0.052358266,0.7824652,0.36505347,-0.46976998,-0.46976998,0.36505347,-0.052358266,0.36505347,0.36505347,1.1998769,-0.46976998,-0.052358266,-0.052358266,-0.46976998,-0.46976998,-0.46976998,-0.46976998,-0.052358266,-0.052358266,1.1998769,-0.46976998,0.36505347,2.0347004,0.7824652,-0.052358266,-0.052358266,2.4521122,0.36505347,0.36505347,-0.052358266,-0.46976998,0.36505347,0.7824652,1.6172886,-0.052358266,-0.052358266,-0.46976998,-0.46976998,-0.052358266,0.36505347,-0.052358266,-0.052358266,1.1998769,1.1998769,4.121759,-0.052358266,-0.052358266,0.7824652,0.36505347,-0.052358266,1.1998769,-0.052358266,-0.46976998,0.36505347,1.6172886,-0.052358266,1.6172886,-0.46976998,0.7824652,-0.052358266,-0.46976998,0.36505347,-0.46976998,-0.052358266,0.7824652,2.4521122,2.0347004,2.0347004,2.0347004,-0.46976998,-0.052358266,2.0347004,0.7824652,0.7824652,0.36505347,2.8695238,-0.46976998,0.7824652,0.7824652,-0.46976998,0.7824652,2.4521122,0.7824652,1.1998769,1.1998769,-0.46976998,1.6172886,0.7824652,3.7043474,1.6172886,2.0347004,0.36505347,0.36505347,3.2869356,6.2088175,2.8695238,2.0347004,7.8784647,-0.46976998,-0.46976998,-0.052358266,-0.46976998,-0.46976998,-0.46976998,-0.052358266,-0.052358266,-0.46976998,-0.46976998,-0.46976998],"rawMean":1.1254355400696865,"stDev":2.395716107197374}