{"zData":[-0.5124693,-0.5124693,0.003153657,-0.5124693,-0.5124693,-0.5124693,-0.5124693,-0.5124693,-0.34059495,-0.5124693,-0.5124693,-0.5124693,-0.5124693,-0.5124693,-0.5124693,-0.5124693,-0.5124693,-0.34059495,-0.5124693,-0.5124693,-0.5124693,-0.5124693,-0.5124693,-0.5124693,-0.5124693,-0.5124693,-0.5124693,-0.34059495,-0.34059495,-0.5124693,-0.34059495,-0.5124693,-0.5124693,-0.5124693,-0.5124693,-0.5124693,0.5187766,-0.5124693,-0.5124693,-0.5124693,-0.5124693,-0.5124693,-0.5124693,-0.5124693,-0.5124693,-0.5124693,-0.5124693,-0.34059495,-0.5124693,-0.5124693,-0.5124693,-0.34059495,-0.5124693,-0.5124693,-0.5124693,-0.34059495,-0.34059495,-0.5124693,-0.5124693,-0.5124693,-0.5124693,-0.5124693,-0.34059495,-0.34059495,-0.5124693,-0.5124693,-0.34059495,-0.34059495,-0.5124693,-0.34059495,0.003153657,0.17502797,-0.34059495,-0.5124693,0.8625252,-0.16872065,0.34690228,0.5187766,-0.16872065,-0.5124693,0.5187766,0.8625252,0.34690228,1.3781481,0.003153657,1.0343995,-0.34059495,0.17502797,1.0343995,1.7218968,0.5187766,0.34690228,0.8625252,0.8625252,0.003153657,0.17502797,2.7531426,0.6906509,1.5500225,1.2062738,0.5187766,1.7218968,3.9562628,1.7218968,4.128137,5.3312573,-0.34059495,-0.5124693,-0.5124693],"rawMean":2.981651376146789,"stDev":5.818205226916736}