[-0.5041909,-0.5041909,2.3158598,-0.5041909,-0.5041909,-0.5041909,-0.5041909,-0.5041909,0.43582603,-0.5041909,-0.5041909,-0.5041909,-0.5041909,-0.5041909,-0.5041909,-0.5041909,-0.5041909,0.43582603,-0.5041909,-0.5041909,-0.5041909,-0.5041909,-0.5041909,-0.5041909,-0.5041909,-0.5041909,-0.5041909,0.43582603,0.43582603,-0.5041909,0.43582603,-0.5041909,-0.5041909,-0.5041909,-0.5041909,-0.5041909,5.1359105,-0.5041909,-0.5041909,-0.5041909,-0.5041909,-0.5041909,-0.5041909,-0.5041909,-0.5041909,-0.5041909,-0.5041909,0.43582603,-0.5041909,-0.5041909,-0.5041909,0.43582603,-0.5041909,-0.5041909,-0.5041909,0.43582603,0.43582603,-0.5041909,-0.5041909,-0.5041909,-0.5041909,-0.5041909,0.43582603,0.43582603,-0.5041909,-0.5041909,-0.5041909,0.43582603,-0.5041909,-0.5041909,2.3158598,3.2558768,0.43582603,-0.5041909,2.3158598,0.43582603,4.195894,0.43582603,0.43582603,-0.5041909,1.3758429,-0.5041909,1.3758429,0.43582603,-0.5041909,0.43582603,-0.5041909,0.43582603,1.3758429,-0.5041909,-0.5041909,-0.5041909,-0.5041909,-0.5041909,-0.5041909,-0.5041909,2.3158598,-0.5041909,-0.5041909,0.43582603,-0.5041909,-0.5041909,1.3758429,-0.5041909,-0.5041909,0.43582603,0.43582603,-0.5041909,1.3758429,-0.5041909]